svm_type nu_svr
kernel_type rbf
gamma 0.5
nr_class 2
total_sv 410
rho 2.720058493194923
SV
-10.0 0:1.0 1:0.0 
-10.0 0:0.9876883625984192 1:0.0 
5.483448261447226 0:0.9510565400123596 1:0.0 
10.0 0:0.8910065293312073 1:0.0 
10.0 0:0.80901700258255 1:0.0 
2.8037114062533677 0:0.7071067690849304 1:0.0 
-10.0 0:0.5877852439880371 1:0.0 
-10.0 0:0.45399051904678345 1:0.0 
-4.115997307563007 0:0.30901697278022766 1:0.0 
10.0 0:0.15643449127674103 1:0.0 
10.0 0:-0.15643444657325745 1:0.0 
-10.0 0:-0.4539906084537506 1:0.0 
10.0 0:-0.8090170621871948 1:0.0 
10.0 0:-0.8910064697265625 1:0.0 
10.0 0:-0.9510564804077148 1:0.0 
-10.0 0:-0.9876883625984192 1:0.0 
-10.0 0:0.9876883625984192 1:0.15643447637557983 
-10.0 0:0.9755282402038574 1:0.15450850129127502 
10.0 0:0.9393474459648132 1:0.1487780213356018 
10.0 0:0.8800367712974548 1:0.13938413560390472 
10.0 0:0.7990566492080688 1:0.12655813992023468 
7.260229236536555 0:0.6984010934829712 1:0.11061587184667587 
-7.483437974711713 0:0.5805486440658569 1:0.09194987267255783 
-4.732889570766482 0:0.44840115308761597 1:0.07101976871490479 
10.0 0:0.15450851619243622 1:0.024471744894981384 
10.0 0:-0.15450848639011383 1:-0.024471741169691086 
-5.552241356088036 0:-0.44840121269226074 1:-0.07101977616548538 
-10.0 0:-0.5805485844612122 1:-0.09194986522197723 
10.0 0:-0.698401153087616 1:-0.11061587184667587 
10.0 0:-0.7990567088127136 1:-0.12655815482139587 
10.0 0:-0.8800367116928101 1:-0.13938412070274353 
10.0 0:-0.9393474459648132 1:-0.1487780213356018 
-10.0 0:-0.9755282402038574 1:-0.15450850129127502 
-10.0 0:0.9510565400123596 1:0.30901700258255005 
-10.0 0:0.9393474459648132 1:0.30521249771118164 
10.0 0:0.9045084714889526 1:0.29389262199401855 
10.0 0:0.8473975658416748 1:0.2753361761569977 
10.0 0:0.769420862197876 1:0.25 
-5.0407210920002115 0:0.6724985241889954 1:0.2185080200433731 
-2.809265358265473 0:0.5590169429779053 1:0.18163563311100006 
-3.641267217478254 0:0.4317706525325775 1:0.14029079675674438 
10.0 0:0.148778036236763 1:0.04834091663360596 
-8.588806167007485 0:-4.157200095278313E-8 1:-1.3507563068060335E-8 
10.0 0:-0.1487780064344406 1:-0.04834090545773506 
-4.818932543676204 0:-0.29389268159866333 1:-0.09549152106046677 
-0.8213215252253274 0:-0.4317707121372223 1:-0.14029081165790558 
-6.592590691164178 0:-0.5590169429779053 1:-0.18163561820983887 
-0.8316766651104581 0:-0.6724985241889954 1:-0.2185080200433731 
10.0 0:-0.84739750623703 1:-0.2753361463546753 
6.676038437857699 0:-0.9045084714889526 1:-0.29389262199401855 
-10.0 0:-0.9393474459648132 1:-0.30521249771118164 
-10.0 0:0.8910065293312073 1:0.45399051904678345 
-10.0 0:0.8800367712974548 1:0.4484011232852936 
10.0 0:0.8473975658416748 1:0.4317706227302551 
10.0 0:0.7938926219940186 1:0.404508501291275 
10.0 0:0.7208393812179565 1:0.3672860264778137 
-9.508633199452873 0:0.6300367116928101 1:0.3210197687149048 
-7.728900714833917 0:0.5237204432487488 1:0.26684892177581787 
-1.8436914715641155 0:0.4045085310935974 1:0.20610739290714264 
10.0 0:0.13938415050506592 1:0.07101976871490479 
-9.075662979036267 0:-0.13938412070274353 1:-0.07101976126432419 
-1.253765263875188 0:-0.4045085906982422 1:-0.20610742270946503 
-7.146600429845671 0:-0.5237204432487488 1:-0.2668488919734955 
2.4808245691549464 0:-0.6300367712974548 1:-0.3210197687149048 
4.950343892349491 0:-0.7208394408226013 1:-0.3672860562801361 
10.0 0:-0.7938925623893738 1:-0.40450847148895264 
10.0 0:-0.8473975658416748 1:-0.4317706227302551 
-10.0 0:-0.8800367712974548 1:-0.4484011232852936 
-10.0 0:0.80901700258255 1:0.5877852439880371 
-10.0 0:0.7990566492080688 1:0.5805486440658569 
10.0 0:0.769420862197876 1:0.55901700258255 
10.0 0:0.7208393812179565 1:0.5237205028533936 
10.0 0:0.6545084714889526 1:0.4755282700061798 
-8.11014572625849 0:0.5720613598823547 1:0.4156269431114197 
-2.6454009249195964 0:0.4755282402038574 1:0.345491498708725 
-4.100145990727293 0:0.3672860562801361 1:0.26684895157814026 
10.0 0:0.12655815482139587 1:0.09194988757371902 
10.0 0:-0.1265581250190735 1:-0.09194986522197723 
-1.7987079217598279 0:-0.3672861158847809 1:-0.26684898138046265 
-7.557171826622901 0:-0.47552821040153503 1:-0.3454914689064026 
-7.5698187908200065 0:-0.5720614194869995 1:-0.4156269431114197 
8.838786563459163 0:-0.6545085310935974 1:-0.4755282998085022 
10.0 0:-0.7208393812179565 1:-0.5237205028533936 
9.373013135131526 0:-0.769420862197876 1:-0.55901700258255 
-10.0 0:-0.7990566492080688 1:-0.5805486440658569 
-10.0 0:0.7071067690849304 1:0.7071067690849304 
-10.0 0:0.6984010934829712 1:0.698401153087616 
10.0 0:0.6724985241889954 1:0.6724985241889954 
10.0 0:0.6300367116928101 1:0.6300367712974548 
10.0 0:0.5720613598823547 1:0.5720614194869995 
-10.0 0:0.4999999701976776 1:0.5 
-2.383783845547935 0:0.4156269133090973 1:0.4156269431114197 
-7.863123614116985 0:0.11061587929725647 1:0.11061588674783707 
10.0 0:-0.11061585694551468 1:-0.11061586439609528 
-3.1759938776219103 0:-0.32101982831954956 1:-0.32101982831954956 
-4.957192702563059 0:-0.4156268835067749 1:-0.4156269133090973 
-8.510306665388146 0:-0.5 1:-0.5 
10.0 0:-0.5720614194869995 1:-0.5720614194869995 
10.0 0:-0.6300367116928101 1:-0.6300367116928101 
8.361582009482818 0:-0.6724984645843506 1:-0.6724985241889954 
-10.0 0:-0.6984010934829712 1:-0.698401153087616 
-10.0 0:0.5877852439880371 1:0.80901700258255 
-10.0 0:0.5805486440658569 1:0.7990566492080688 
10.0 0:0.5590169429779053 1:0.7694209218025208 
10.0 0:0.5237204432487488 1:0.7208394408226013 
10.0 0:0.4755282402038574 1:0.6545085310935974 
-10.0 0:0.4156269133090973 1:0.5720614194869995 
-6.972405267569702 0:0.3454914689064026 1:0.4755282402038574 
-1.052347885420449 0:0.26684892177581787 1:0.3672860562801361 
10.0 0:0.09194988012313843 1:0.12655815482139587 
10.0 0:-0.09194985777139664 1:-0.12655813992023468 
-3.352781829428851 0:-0.18163564801216125 1:-0.2500000596046448 
-2.526389239466943 0:-0.26684898138046265 1:-0.3672861158847809 
-2.122573624733282 0:-0.3454914689064026 1:-0.4755282402038574 
-6.417167007212932 0:-0.4156269133090973 1:-0.5720614194869995 
9.286694997703325 0:-0.4755282700061798 1:-0.6545085310935974 
10.0 0:-0.5237204432487488 1:-0.7208393812179565 
1.4126224327770203 0:-0.5590169429779053 1:-0.769420862197876 
-10.0 0:-0.5805486440658569 1:-0.7990566492080688 
-10.0 0:0.45399051904678345 1:0.8910065293312073 
-10.0 0:0.44840115308761597 1:0.8800367712974548 
10.0 0:0.4317706525325775 1:0.8473975658416748 
10.0 0:0.4045085310935974 1:0.7938926219940186 
8.584894997478239 0:0.3672860562801361 1:0.7208393812179565 
-5.655296123720984 0:0.3210197687149048 1:0.6300367116928101 
-0.6109362293943299 0:0.26684892177581787 1:0.5237204432487488 
-3.2782694570108797 0:0.20610739290714264 1:0.404508501291275 
10.0 0:0.07101977616548538 1:0.13938415050506592 
-10.0 0:-1.9844556220505183E-8 1:-3.894713174190656E-8 
-8.515174542045983 0:-0.07101976126432419 1:-0.13938412070274353 
-1.5021074917258534 0:-0.20610743761062622 1:-0.4045085906982422 
-3.3103154571750606 0:-0.26684892177581787 1:-0.5237204432487488 
-2.2360720800265086 0:-0.3210197687149048 1:-0.6300367712974548 
8.765056490895583 0:-0.3672860562801361 1:-0.7208394408226013 
10.0 0:-0.404508501291275 1:-0.7938925623893738 
10.0 0:-0.4317706525325775 1:-0.8473975658416748 
-10.0 0:-0.44840115308761597 1:-0.8800367712974548 
-10.0 0:0.30901697278022766 1:0.9510565400123596 
-10.0 0:0.30521243810653687 1:0.9393474459648132 
10.0 0:0.29389259219169617 1:0.9045085310935974 
10.0 0:0.2753361165523529 1:0.8473975658416748 
10.0 0:0.2499999701976776 1:0.769420862197876 
7.744652271476021 0:0.21850799024105072 1:0.6724985241889954 
-9.37080710864636 0:0.18163560330867767 1:0.55901700258255 
-8.298877934353929 0:0.140290766954422 1:0.4317706525325775 
10.0 0:0.04834090918302536 1:0.148778036236763 
-10.0 0:-1.3507561291703496E-8 1:-4.157200450549681E-8 
-8.146911638975638 0:-0.048340898007154465 1:-0.1487780064344406 
-2.523347134190299 0:-0.09549150615930557 1:-0.29389268159866333 
-6.058511442868621 0:-0.14029079675674438 1:-0.4317707121372223 
-10.0 0:-0.18163560330867767 1:-0.5590169429779053 
1.856378262884797 0:-0.21850799024105072 1:-0.6724985241889954 
2.635983579105037 0:-0.2499999850988388 1:-0.7694209218025208 
10.0 0:-0.2753361165523529 1:-0.84739750623703 
4.97075213338502 0:-0.29389259219169617 1:-0.9045084714889526 
-10.0 0:-0.30521243810653687 1:-0.9393474459648132 
-10.0 0:0.15643449127674103 1:0.9876883625984192 
-10.0 0:0.15450851619243622 1:0.9755282402038574 
10.0 0:0.148778036236763 1:0.9393474459648132 
10.0 0:0.13938415050506592 1:0.8800367712974548 
10.0 0:0.12655815482139587 1:0.7990566492080688 
0.8428508635042711 0:0.11061587929725647 1:0.6984010934829712 
-0.5311415328131558 0:0.09194988012313843 1:0.5805486440658569 
-10.0 0:0.07101977616548538 1:0.44840115308761597 
-1.9952715507004228 0:0.04834090918302536 1:0.30521243810653687 
9.588612171540982 0:0.024471748620271683 1:0.15450851619243622 
-10.0 0:-6.837968857809074E-9 1:-4.3173230324100587E-8 
10.0 0:-0.024471743032336235 1:-0.15450848639011383 
0.3392777019082214 0:-0.048340920358896255 1:-0.30521252751350403 
-10.0 0:-0.07101978361606598 1:-0.44840121269226074 
10.0 0:-0.12655816972255707 1:-0.7990567088127136 
10.0 0:-0.13938413560390472 1:-0.8800367116928101 
8.739262112388088 0:-0.148778036236763 1:-0.9393474459648132 
-10.0 0:-0.15450851619243622 1:-0.9755282402038574 
-10.0 0:-4.371138828673793E-8 1:1.0 
-7.567567249342366 0:-4.3173230324100587E-8 1:0.9876883625984192 
1.9146237625072136 0:-3.894713174190656E-8 1:0.8910065293312073 
-0.4106321305510209 0:-1.9844556220505183E-8 1:0.45399051904678345 
-10.0 0:1.910685676922942E-15 1:-4.371138828673793E-8 
10.0 0:3.894713174190656E-8 1:-0.8910064697265625 
-4.231212941100338 0:4.3173230324100587E-8 1:-0.9876883625984192 
-10.0 0:-0.15643444657325745 1:0.9876883625984192 
4.9086952481603285 0:-0.13938412070274353 1:0.8800367712974548 
-0.7907092923417607 0:-0.07101976126432419 1:0.44840115308761597 
5.178992721328449 0:0.13938410580158234 1:-0.8800367116928101 
-0.6681336609778767 0:0.15450848639011383 1:-0.9755282402038574 
-10.0 0:-0.30901703238487244 1:0.9510564804077148 
5.526964886289068 0:-0.27533620595932007 1:0.8473975658416748 
-1.3571517774522088 0:0.14029084146022797 1:-0.4317707121372223 
6.84023051469156 0:0.2753361761569977 1:-0.84739750623703 
-2.5751853353853003 0:0.30521252751350403 1:-0.9393474459648132 
-10.0 0:-0.4539906084537506 1:0.8910064697265625 
-0.22956542728045812 0:-0.44840121269226074 1:0.8800367116928101 
10.0 0:-0.4045085906982422 1:0.7938925623893738 
-1.2747100199377739 0:-0.20610743761062622 1:0.404508501291275 
10.0 0:1.9844559773218862E-8 1:-3.894713174190656E-8 
-2.0453325616225957 0:0.2061074674129486 1:-0.4045085608959198 
10.0 0:0.4045085608959198 1:-0.7938925623893738 
-10.0 0:-0.5877851843833923 1:0.80901700258255 
-1.173569478977154 0:-0.5805485844612122 1:0.7990567088127136 
10.0 0:-0.5237204432487488 1:0.7208394408226013 
-4.723818196220462 0:-0.26684892177581787 1:0.3672860562801361 
10.0 0:2.569290913356781E-8 1:-3.53632572114293E-8 
10.0 0:0.5237204432487488 1:-0.7208394408226013 
-10.0 0:-0.7071067690849304 1:0.7071067690849304 
10.0 0:-0.6300367712974548 1:0.6300367712974548 
10.0 0:3.0908619663705394E-8 1:-3.0908619663705394E-8 
10.0 0:0.6300367116928101 1:-0.6300367116928101 
-0.6455768054578748 0:0.698401153087616 1:-0.6984010934829712 
-10.0 0:-0.8090170621871948 1:0.5877851843833923 
-1.7585169924922097 0:-0.7990567088127136 1:0.5805485844612122 
10.0 0:-0.7208394408226013 1:0.5237204432487488 
-3.8519302225181056 0:-0.3672860562801361 1:0.26684892177581787 
10.0 0:3.536326076414298E-8 1:-2.569290735721097E-8 
-1.9209746650115398 0:0.36728614568710327 1:-0.26684895157814026 
10.0 0:0.7208394408226013 1:-0.5237204432487488 
-0.4430369553945114 0:0.7990567088127136 1:-0.5805485844612122 
-10.0 0:-0.8910064697265625 1:0.4539905786514282 
6.263525928576263 0:-0.7938925623893738 1:0.4045085906982422 
-0.535261600564664 0:-0.404508501291275 1:0.20610742270946503 
10.0 0:3.894713174190656E-8 1:-1.9844559773218862E-8 
-0.17489234401973563 0:0.8800367116928101 1:-0.44840121269226074 
-10.0 0:-0.9510564804077148 1:0.30901703238487244 
5.1602702534225 0:-0.8473975658416748 1:0.2753361761569977 
-10.0 0:-0.9876883625984192 1:0.15643444657325745 
-3.1814354881042624 0:-0.9755282402038574 1:0.15450847148895264 
10.0 0:-0.8800367712974548 1:0.13938410580158234 
-0.33596732926505457 0:-0.44840115308761597 1:0.07101975381374359 
10.0 0:4.3173230324100587E-8 1:-6.837967081452234E-9 
10.0 0:0.8800367116928101 1:-0.13938410580158234 
-6.1745805503540545 0:0.9755282402038574 1:-0.15450847148895264 
-10.0 0:-1.0 1:-8.742277657347586E-8 
-10.0 0:-0.9876883625984192 1:-8.634646064820117E-8 
0.1986960316395997 0:-0.9510565400123596 1:-8.314400190556626E-8 
10.0 0:-0.8910065293312073 1:-7.789426348381312E-8 
-9.590471322792334 0:-0.5877852439880371 1:-5.138581826713562E-8 
-0.8175164930702703 0:0.15643444657325745 1:1.3675935051082888E-8 
10.0 0:0.8910064697265625 1:7.789426348381312E-8 
10.0 0:0.9510564804077148 1:8.314400190556626E-8 
-10.0 0:0.9876883625984192 1:8.634646064820117E-8 
-10.0 0:-0.9876883625984192 1:-0.15643437206745148 
-10.0 0:-0.9755282998085022 1:-0.15450841188430786 
7.160910065274514 0:-0.9393474459648132 1:-0.14877793192863464 
10.0 0:-0.8800367712974548 1:-0.13938404619693756 
-9.522302322641305 0:-0.5805486440658569 1:-0.09194982051849365 
-2.829334170792678 0:-0.30521246790885925 1:-0.048340875655412674 
-6.213234039646851 0:-0.15450851619243622 1:-0.02447173185646534 
-9.118295048028195 0:0.15450848639011383 1:0.024471726268529892 
-3.645895482061688 0:0.30521252751350403 1:0.04834089055657387 
-7.3956096926115436 0:0.5805485844612122 1:0.09194981306791306 
10.0 0:0.8800367116928101 1:0.13938404619693756 
10.0 0:0.9393474459648132 1:0.14877793192863464 
-10.0 0:0.9755282998085022 1:0.15450841188430786 
-10.0 0:-0.9510565400123596 1:-0.30901697278022766 
-10.0 0:-0.9393474459648132 1:-0.30521246790885925 
10.0 0:-0.9045085310935974 1:-0.29389259219169617 
10.0 0:-0.8473975658416748 1:-0.2753361463546753 
10.0 0:-0.769420862197876 1:-0.2499999850988388 
-10.0 0:-0.55901700258255 1:-0.18163561820983887 
-7.300181189127178 0:-0.148778036236763 1:-0.04834090918302536 
-8.175675614472572 0:0.1487780064344406 1:0.04834090173244476 
-10.0 0:0.5590169429779053 1:0.18163560330867767 
-10.0 0:0.6724985241889954 1:0.21850800514221191 
7.210837042186665 0:0.7694209218025208 1:0.25 
10.0 0:0.84739750623703 1:0.2753361165523529 
7.71987622491886 0:0.9045084714889526 1:0.29389259219169617 
-10.0 0:0.9393474459648132 1:0.30521246790885925 
-10.0 0:-0.8910065293312073 1:-0.45399054884910583 
-10.0 0:-0.8800367116928101 1:-0.44840115308761597 
10.0 0:-0.7938926219940186 1:-0.4045085310935974 
10.0 0:-0.7208393812179565 1:-0.3672860562801361 
-9.54176201043915 0:-0.5237204432487488 1:-0.26684892177581787 
10.0 0:-0.13938415050506592 1:-0.07101977616548538 
-7.134121489689416 0:0.13938412070274353 1:0.07101976126432419 
-2.922346578714071 0:0.5237204432487488 1:0.26684892177581787 
-10.0 0:0.6300367712974548 1:0.3210197985172272 
10.0 0:0.7208394408226013 1:0.3672860860824585 
10.0 0:0.7938925623893738 1:0.404508501291275 
-1.554945025708033 0:0.84739750623703 1:0.4317706525325775 
-10.0 0:0.8800367116928101 1:0.44840115308761597 
-10.0 0:-0.8090169429779053 1:-0.5877853631973267 
-10.0 0:-0.7990565896034241 1:-0.5805487036705017 
10.0 0:-0.7208393812179565 1:-0.5237205624580383 
10.0 0:-0.6545084118843079 1:-0.4755283296108246 
-9.69404776902059 0:-0.5720613598823547 1:-0.41562700271606445 
-3.84131016691343 0:-0.47552821040153503 1:-0.34549152851104736 
-3.174080749118723 0:-0.24999995529651642 1:-0.18163563311100006 
-7.251044590371666 0:-0.12655813992023468 1:-0.09194989502429962 
-7.50754499612234 0:0.1265581250190735 1:0.09194988012313843 
-0.31555647472158155 0:0.3672860860824585 1:0.26684901118278503 
-2.4734184279590257 0:0.47552818059921265 1:0.34549152851104736 
-6.852891073609933 0:0.5720613598823547 1:0.41562700271606445 
10.0 0:0.6545084714889526 1:0.475528359413147 
10.0 0:0.7208393216133118 1:0.5237205624580383 
0.5432820152101465 0:0.7694208025932312 1:0.5590170621871948 
-10.0 0:0.7990565896034241 1:0.5805487036705017 
-10.0 0:-0.7071068286895752 1:-0.7071067094802856 
-10.0 0:-0.698401153087616 1:-0.6984010934829712 
10.0 0:-0.6300367712974548 1:-0.6300367116928101 
10.0 0:-0.5720614194869995 1:-0.5720613598823547 
-1.6052798131660206 0:-0.4156269431114197 1:-0.4156268835067749 
-6.74135187148748 0:-0.3210197985172272 1:-0.3210197687149048 
-8.702198147364392 0:-0.11061589419841766 1:-0.11061587929725647 
10.0 0:0.11061587184667587 1:0.11061585694551468 
-4.751475257744004 0:0.32101985812187195 1:0.3210197985172272 
-2.022972871209012 0:0.4156269431114197 1:0.4156268835067749 
-9.770434572719543 0:0.5000000596046448 1:0.4999999701976776 
10.0 0:0.5720614790916443 1:0.5720614194869995 
10.0 0:0.6300367712974548 1:0.6300366520881653 
1.9316772221648302 0:0.6724985241889954 1:0.6724984645843506 
-10.0 0:0.698401153087616 1:0.6984010934829712 
-10.0 0:-0.5877850651741028 1:-0.8090171217918396 
-10.0 0:-0.5805484652519226 1:-0.7990567684173584 
10.0 0:-0.5590168237686157 1:-0.7694210410118103 
10.0 0:-0.5237203240394592 1:-0.7208395600318909 
10.0 0:-0.4755280911922455 1:-0.6545085906982422 
-5.261432052607185 0:-0.41562679409980774 1:-0.5720614790916443 
-10.0 0:-0.3454913794994354 1:-0.4755283296108246 
-2.822773879631042 0:-0.2668488621711731 1:-0.3672861158847809 
-7.367300893492672 0:-0.09194985032081604 1:-0.12655818462371826 
1.0140636399133967 0:2.5692902028140452E-8 1:3.536326431685666E-8 
-8.25172145978622 0:0.09194983541965485 1:0.12655815482139587 
-0.3458006273667884 0:0.34549134969711304 1:0.4755282998085022 
-9.862690857387948 0:0.41562679409980774 1:0.5720614790916443 
10.0 0:0.47552812099456787 1:0.654508650302887 
10.0 0:0.5237203240394592 1:0.7208395004272461 
-4.320060486776448 0:0.5590168237686157 1:0.7694209814071655 
-10.0 0:0.5805484652519226 1:0.7990567684173584 
-10.0 0:-0.4539906680583954 1:-0.8910064697265625 
-10.0 0:-0.4484012722969055 1:-0.8800366520881653 
5.114485267145346 0:-0.43177077174186707 1:-0.84739750623703 
10.0 0:-0.40450865030288696 1:-0.7938925623893738 
10.0 0:-0.36728614568710327 1:-0.7208393216133118 
-10.0 0:-0.32101985812187195 1:-0.6300367116928101 
-10.0 0:-0.26684901118278503 1:-0.5237204432487488 
-3.19365960236578 0:-0.20610745251178741 1:-0.40450847148895264 
10.0 0:-0.07101979851722717 1:-0.13938413560390472 
-8.946009009499651 0:0.07101978361606598 1:0.13938410580158234 
-6.380097802481319 0:0.26684898138046265 1:0.523720383644104 
-10.0 0:0.32101988792419434 1:0.6300367116928101 
10.0 0:0.36728617548942566 1:0.7208393812179565 
10.0 0:0.4045086205005646 1:0.793892502784729 
7.820838687672728 0:0.43177077174186707 1:0.8473974466323853 
-10.0 0:0.4484012722969055 1:0.8800366520881653 
-10.0 0:-0.3090170919895172 1:-0.9510564804077148 
-10.0 0:-0.3052125871181488 1:-0.9393473863601685 
10.0 0:-0.2938927412033081 1:-0.9045084714889526 
10.0 0:-0.27533626556396484 1:-0.84739750623703 
10.0 0:-0.25000008940696716 1:-0.769420862197876 
-10.0 0:-0.18163569271564484 1:-0.5590169429779053 
10.0 0:-0.04834093153476715 1:-0.148778036236763 
-9.303872234364649 0:0.048340920358896255 1:0.1487780064344406 
-10.0 0:0.18163567781448364 1:0.5590169429779053 
10.0 0:0.27533623576164246 1:0.84739750623703 
10.0 0:0.2938927412033081 1:0.9045084714889526 
-10.0 0:0.3052125871181488 1:0.9393473863601685 
-10.0 0:-0.15643452107906342 1:-0.9876883029937744 
-10.0 0:-0.1545085459947586 1:-0.9755282402038574 
4.826489349004611 0:-0.1487780660390854 1:-0.9393474459648132 
10.0 0:-0.1393841803073883 1:-0.8800367712974548 
-0.5556340028509935 0:-0.09194989502429962 1:-0.5805486440658569 
-3.8742628408157627 0:0.04834093153476715 1:0.30521252751350403 
-10.0 0:0.09194989502429962 1:0.5805485844612122 
7.798279903759309 0:0.12655818462371826 1:0.7990567088127136 
10.0 0:0.1393841654062271 1:0.8800367116928101 
5.965493402442647 0:0.1487780660390854 1:0.9393473863601685 
-10.0 0:0.1545085459947586 1:0.9755282402038574 
-10.0 0:1.1924880638503055E-8 1:-1.0 
10.0 0:1.0625146096288063E-8 1:-0.8910065293312073 
10.0 0:-1.0625146096288063E-8 1:0.8910064697265625 
-10.0 0:0.1564345359802246 1:-0.9876883029937744 
-0.751383186416621 0:0.07101979851722717 1:-0.44840115308761597 
-10.0 0:0.3090171217918396 1:-0.9510564804077148 
-1.2927989888489342 0:0.14029084146022797 1:-0.4317706227302551 
-1.2326074617609493 0:-0.14029087126255035 1:0.4317707121372223 
-10.0 0:0.4539906680583954 1:-0.8910064101219177 
-2.764889483587355 0:0.4484013020992279 1:-0.8800366520881653 
8.406689479643338 0:0.40450865030288696 1:-0.7938925623893738 
-1.4853371358162717 0:0.2061074674129486 1:-0.40450847148895264 
10.0 0:-1.984456332593254E-8 1:3.894712818919288E-8 
6.051979047537454 0:-0.40450865030288696 1:0.793892502784729 
-10.0 0:0.5877850651741028 1:-0.8090171217918396 
-0.6715653870174891 0:0.5805484652519226 1:-0.7990567684173584 
9.876187252471853 0:0.5237203240394592 1:-0.7208395004272461 
-5.61018192140799 0:0.2668488621711731 1:-0.3672861158847809 
10.0 0:-2.569290380449729E-8 1:3.536326431685666E-8 
10.0 0:-0.5237203240394592 1:0.7208395004272461 
0.2974150484049698 0:-0.5590168237686157 1:0.7694209814071655 
-10.0 0:0.7071066498756409 1:-0.70710688829422 
10.0 0:0.6300366520881653 1:-0.6300368309020996 
-1.9991378232292119 0:0.3210197389125824 1:-0.32101982831954956 
10.0 0:-3.0908616110991716E-8 1:3.090862321641907E-8 
-3.6438035750085733 0:-0.3210197985172272 1:0.32101988792419434 
10.0 0:-0.6300366520881653 1:0.6300368309020996 
-3.5917186093767315 0:-0.6984010338783264 1:0.6984012126922607 
-10.0 0:0.8090169429779053 1:-0.5877853035926819 
5.335107153615265 0:0.7208393812179565 1:-0.5237205624580383 
10.0 0:-3.536325365871562E-8 1:2.5692912686281488E-8 
10.0 0:-0.7208393216133118 1:0.5237205028533936 
-10.0 0:0.8910065293312073 1:-0.45399051904678345 
3.5127417821584124 0:0.7938926219940186 1:-0.404508501291275 
-0.3475844788036001 0:0.4045085310935974 1:-0.20610739290714264 
-1.1205208263556656 0:-0.8800367712974548 1:0.44840115308761597 
-10.0 0:0.9510565400123596 1:-0.3090169429779053 
-0.22383938774981096 0:0.9393474459648132 1:-0.30521243810653687 
5.135077651693368 0:0.8473975658416748 1:-0.2753361165523529 
-0.35872988515399445 0:-0.4317707419395447 1:0.14029079675674438 
-10.0 0:0.9876883625984192 1:-0.15643435716629028 
6.600250998462142 0:0.8800367712974548 1:-0.13938403129577637 
7.540674070130957 0:-0.8800367116928101 1:0.13938403129577637 
